
\data\
ngram 1=11
ngram 2=10

\1-grams:
-1	</s>
-99	<s>	-0.2552725
-1	again	-0.2552725
-1	blue	-0.2552725
-1	dew	-0.2552725
-1	my	-0.2552725
-1	over	-0.2552725
-1	shell	-0.2552725
-1	shimmered	-0.2552725
-1	shiny	-0.2552725
-1	the	-0.2552725

\2-grams:
-0.30103	<s> the
-0.30103	again </s>
-0.30103	blue shell
-0.30103	dew shimmered
-0.30103	my shiny
-0.30103	over my
-0.30103	shell again
-0.30103	shimmered over
-0.30103	shiny blue
-0.30103	the dew

\end\
